<?xml version="1.0"?>
<opencv_storage>
<stage14>
  <maxWeakCount>6</maxWeakCount>
  <stageThreshold>-6.7745572328567505e-01</stageThreshold>
  <weakClassifiers>
    <_>
      <internalNodes>
        0 -1 2117961 -7.1192684117704630e-04</internalNodes>
      <leafValues>
        4.2857143282890320e-01 -4.4067797064781189e-01</leafValues></_>
    <_>
      <internalNodes>
        0 -1 2337143 6.6682661417871714e-04</internalNodes>
      <leafValues>
        -2.7138677239418030e-01 6.4703488349914551e-01</leafValues></_>
    <_>
      <internalNodes>
        0 -1 1622110 1.3501624925993383e-04</internalNodes>
      <leafValues>
        -3.6590823531150818e-01 5.0467228889465332e-01</leafValues></_>
    <_>
      <internalNodes>
        0 -1 568968 1.0435514923301525e-05</internalNodes>
      <leafValues>
        4.0513494610786438e-01 -5.7701373100280762e-01</leafValues></_>
    <_>
      <internalNodes>
        0 -1 2587073 2.4130116798914969e-04</internalNodes>
      <leafValues>
        -2.5809124112129211e-01 7.9760020971298218e-01</leafValues></_>
    <_>
      <internalNodes>
        0 -1 1707187 -1.5429499399033375e-05</internalNodes>
      <leafValues>
        -6.1577588319778442e-01 3.3205801248550415e-01</leafValues></_></weakClassifiers></stage14>
</opencv_storage>
