<?xml version="1.0"?>
<opencv_storage>
<stage17>
  <maxWeakCount>5</maxWeakCount>
  <stageThreshold>-1.0617977380752563e-01</stageThreshold>
  <weakClassifiers>
    <_>
      <internalNodes>
        0 -1 2533587 -3.2246928185486468e-06</internalNodes>
      <leafValues>
        3.6000001430511475e-01 -5.0980395078659058e-01</leafValues></_>
    <_>
      <internalNodes>
        0 -1 1779547 -1.1916232760995626e-03</internalNodes>
      <leafValues>
        5.1857244968414307e-01 -3.3973458409309387e-01</leafValues></_>
    <_>
      <internalNodes>
        0 -1 2325766 1.1321505159139633e-01</internalNodes>
      <leafValues>
        -3.0612134933471680e-01 7.1868723630905151e-01</leafValues></_>
    <_>
      <internalNodes>
        0 -1 1275911 1.4178710989654064e-03</internalNodes>
      <leafValues>
        -2.5071179866790771e-01 7.5230091810226440e-01</leafValues></_>
    <_>
      <internalNodes>
        0 -1 490926 -7.0635108277201653e-03</internalNodes>
      <leafValues>
        -4.2791905999183655e-01 4.4622874259948730e-01</leafValues></_></weakClassifiers></stage17>
</opencv_storage>
