<?xml version="1.0"?>
<opencv_storage>
<stage8>
  <maxWeakCount>5</maxWeakCount>
  <stageThreshold>-1.1413081884384155e+00</stageThreshold>
  <weakClassifiers>
    <_>
      <internalNodes>
        0 -1 2069558 -4.8303878429578617e-05</internalNodes>
      <leafValues>
        5.0561797618865967e-01 -5.3982299566268921e-01</leafValues></_>
    <_>
      <internalNodes>
        0 -1 1960418 -9.7405121778137982e-05</internalNodes>
      <leafValues>
        7.8730911016464233e-01 -3.2596766948699951e-01</leafValues></_>
    <_>
      <internalNodes>
        0 -1 1502721 8.6407824710477144e-05</internalNodes>
      <leafValues>
        -3.5160246491432190e-01 6.6634130477905273e-01</leafValues></_>
    <_>
      <internalNodes>
        0 -1 1896092 -4.1461889850324951e-06</internalNodes>
      <leafValues>
        5.5861365795135498e-01 -4.6266949176788330e-01</leafValues></_>
    <_>
      <internalNodes>
        0 -1 2704204 7.1571907028555870e-04</internalNodes>
      <leafValues>
        -5.1410990953445435e-01 5.3875446319580078e-01</leafValues></_></weakClassifiers></stage8>
</opencv_storage>
